{"learner":{"attributes":{"best_iteration":"13","best_ntree_limit":"14","best_score":"0.9701718907987866","scikit_learn":"{\"use_label_encoder\": false, \"n_estimators\": 180, \"objective\": \"binary:logistic\", \"max_depth\": 10, \"max_leaves\": null, \"max_bin\": null, \"grow_policy\": null, \"learning_rate\": null, \"verbosity\": null, \"booster\": null, \"tree_method\": null, \"gamma\": 0.528, \"min_child_weight\": 0.9, \"max_delta_step\": null, \"subsample\": null, \"sampling_method\": null, \"colsample_bytree\": 1, \"colsample_bylevel\": null, \"colsample_bynode\": null, \"reg_alpha\": 4, \"reg_lambda\": null, \"scale_pos_weight\": null, \"base_score\": null, \"missing\": NaN, \"num_parallel_tree\": null, \"random_state\": null, \"n_jobs\": null, \"monotone_constraints\": null, \"interaction_constraints\": null, \"importance_type\": null, \"gpu_id\": null, \"validate_parameters\": null, \"predictor\": null, \"enable_categorical\": false, \"max_cat_to_onehot\": null, \"eval_metric\": \"auc\", \"early_stopping_rounds\": 10, \"callbacks\": null, \"classes_\": [0, 1], \"n_classes_\": 2, \"evals_result_\": {\"validation_0\": {\"auc\": [0.9415536556603774, 0.9480886399371069, 0.9561468160377359, 0.9582104952830188, 0.9606181210691824, 0.9630503144654088, 0.9722877358490566, 0.973123034591195, 0.9770538522012578, 0.9791666666666666, 0.9794123427672956, 0.9799036949685535, 0.9801985062893082, 0.9807881289308176, 0.9812549135220126, 0.9812549135220126, 0.9812549135220126, 0.9812549135220126, 0.9812549135220126, 0.9812549135220126, 0.9812549135220126, 0.9812549135220126, 0.9812549135220126, 0.9812549135220126]}, \"validation_1\": {\"auc\": [0.9269464105156724, 0.9280839231547017, 0.9359201213346815, 0.9350353892821032, 0.9424924165824065, 0.9446410515672397, 0.9606926188068756, 0.9627148634984833, 0.9690343781597573, 0.9700455005055612, 0.9699191102123357, 0.9694135490394338, 0.9696663296258847, 0.9701718907987866, 0.9699191102123357, 0.9699191102123357, 0.9699191102123357, 0.9699191102123357, 0.9699191102123357, 0.9699191102123357, 0.9699191102123357, 0.9699191102123357, 0.9699191102123357, 0.9699191102123357]}}, \"_estimator_type\": \"classifier\"}"},"feature_names":["Region","Fresh","Milk","Grocery","Frozen","Detergents_Paper","Delicassen"],"feature_types":["int","int","int","int","int","int","int"],"gradient_booster":{"model":{"gbtree_model_param":{"num_parallel_tree":"1","num_trees":"24","size_leaf_vector":"0"},"tree_info":[0,0,0,0,0,0,0,0,0,0,0,0,0,0,0,0,0,0,0,0,0,0,0,0],"trees":[{"base_weights":[6.923077E-1,1.745098E0,-1.1071428E0,-0E0,-1.2761905E0,-0E0,-1.4482758E0,-0E0,-1.5061729E0],"categories":[],"categories_nodes":[],"categories_segments":[],"categories_sizes":[],"default_left":[1,0,1,0,1,0,1,1,1],"id":0,"left_children":[1,-1,3,-1,5,-1,-1,-1,-1],"loss_changes":[1.5225053E2,0E0,8.43095E0,0E0,2.868309E0,0E0,3.1758118E-1,0E0,0E0],"parents":[2147483647,0,0,2,2,4,4,6,6],"right_children":[2,-1,4,-1,6,-1,-1,-1,-1],"split_conditions":[1.888E3,5.235294E-1,3.196E3,-0E0,3.5005E3,-0E0,-4.3448275E-1,-0E0,-4.5185187E-1],"split_indices":[5,0,2,0,5,0,4,2147483647,2147483647],"split_type":[0,0,0,0,0,0,0,0,0],"sum_hessian":[7.7E1,5E1,2.7E1,1.75E0,2.525E1,4.5E0,2.075E1,1.5E0,1.925E1],"tree_param":{"num_deleted":"2","num_feature":"7","num_nodes":"9","size_leaf_vector":"0"}},{"base_weights":[5.053422E-1,1.3285699E0,-8.178588E-1,1.3446722E0,-0E0,-0E0,-9.903946E-1,-1.0444969E0,-0E0,-0E0,-1.0957552E0,-0E0,-1.1373147E0],"categories":[],"categories_nodes":[],"categories_segments":[],"categories_sizes":[],"default_left":[1,1,1,1,1,0,1,1,0,0,1,1,1],"id":1,"left_children":[1,-1,5,-1,-1,-1,7,9,-1,-1,-1,-1,-1],"loss_changes":[8.3492584E1,3.6463165E-1,6.0097466E0,0E0,0E0,0E0,1.6518269E0,8.7129784E-1,0E0,0E0,4.412384E-1,0E0,0E0],"parents":[2147483647,0,0,1,1,2,2,6,6,7,7,10,10],"right_children":[2,-1,6,-1,-1,-1,8,10,-1,-1,-1,-1,-1],"split_conditions":[1.888E3,3.9857098E-1,3.649E3,4.0340167E-1,-0E0,-0E0,5.955E3,1.11E2,-0E0,-0E0,-3.287266E-1,-0E0,-3.4119442E-1],"split_indices":[5,3,2,2147483647,2147483647,0,4,4,0,0,5,2147483647,2147483647],"split_type":[0,0,0,0,0,0,0,0,0,0,0,0,0],"sum_hessian":[7.277534E1,4.6724598E1,2.6050734E1,4.5790108E1,9.34492E-1,2.4771261E0,2.3573608E1,2.2607918E1,9.656892E-1,1.4313784E0,2.117654E1,1.25E0,1.992654E1],"tree_param":{"num_deleted":"4","num_feature":"7","num_nodes":"13","size_leaf_vector":"0"}},{"base_weights":[4.008271E-1,1.072529E0,-6.61513E-1,1.1322013E0,-0E0,-0E0,-8.265322E-1,-8.7931716E-1,-0E0,-0E0,-9.2486054E-1],"categories":[],"categories_nodes":[],"categories_segments":[],"categories_sizes":[],"default_left":[1,1,1,0,0,0,1,1,0,1,1],"id":2,"left_children":[1,3,5,-1,-1,-1,7,-1,-1,-1,-1],"loss_changes":[4.9518314E1,1.8660965E0,4.6769457E0,0E0,0E0,0E0,1.249136E0,5.1755714E-1,0E0,0E0,0E0],"parents":[2147483647,0,0,1,1,2,2,6,6,7,7],"right_children":[2,4,6,-1,-1,-1,8,-1,-1,-1,-1],"split_conditions":[2.476E3,8.591E3,3.196E3,3.396604E-1,-0E0,-0E0,5.955E3,-2.6379517E-1,-0E0,-0E0,-2.7745816E-1],"split_indices":[5,3,2,0,0,0,4,4,0,2147483647,2147483647],"split_type":[0,0,0,0,0,0,0,0,0,0,0],"sum_hessian":[6.509636E1,4.218138E1,2.2914978E1,3.920535E1,2.9760323E0,1.75E0,2.1164978E1,2.019929E1,9.656892E-1,1.4313784E0,1.876791E1],"tree_param":{"num_deleted":"2","num_feature":"7","num_nodes":"11","size_leaf_vector":"0"}},{"base_weights":[3.3071065E-1,9.466745E-1,-4.507484E-1,-0E0,9.645197E-1,-0E0,-6.864552E-1,-0E0,-7.7747065E-1,-8.2797104E-1,-0E0],"categories":[],"categories_nodes":[],"categories_segments":[],"categories_sizes":[],"default_left":[1,1,1,1,1,0,1,0,1,1,1],"id":3,"left_children":[1,-1,5,-1,-1,-1,7,-1,-1,-1,-1],"loss_changes":[3.0434807E1,2.2969818E-1,3.6637344E0,0E0,0E0,0E0,1.2482595E0,0E0,2.3734951E-1,0E0,0E0],"parents":[2147483647,0,0,1,1,2,2,6,6,8,8],"right_children":[2,-1,6,-1,-1,-1,8,-1,-1,-1,-1],"split_conditions":[1.888E3,2.8400236E-1,5.631E3,-0E0,2.893559E-1,-0E0,2.415E2,-0E0,-2.332412E-1,-2.4839132E-1,-0E0],"split_indices":[5,6,2,2147483647,2147483647,0,6,0,4,2147483647,2147483647],"split_type":[0,0,0,0,0,0,0,0,0,0,0],"sum_hessian":[5.7220337E1,3.4742622E1,2.2477715E1,1.0634489E0,3.3679173E1,5.5799503E0,1.6897764E1,1.8800825E0,1.5017682E1,1.34695635E1,1.5481194E0],"tree_param":{"num_deleted":"4","num_feature":"7","num_nodes":"11","size_leaf_vector":"0"}},{"base_weights":[2.6298913E-1,7.3393893E-1,-5.0608605E-1,8.493374E-1,-0E0,-0E0,-6.106513E-1,8.7197745E-1,-0E0,-0E0,-6.77101E-1,9.090658E-1,-0E0,9.335472E-1,-0E0],"categories":[],"categories_nodes":[],"categories_segments":[],"categories_sizes":[],"default_left":[1,1,1,1,0,0,1,1,1,0,0,1,1,1,1],"id":4,"left_children":[1,3,5,-1,-1,-1,9,-1,-1,-1,-1,-1,-1,-1,-1],"loss_changes":[1.9858032E1,1.7509899E0,1.6044722E0,3.5510635E-1,0E0,0E0,7.829442E-1,2.5664902E-1,0E0,0E0,0E0,3.5095215E-2,0E0,0E0,0E0],"parents":[2147483647,0,0,1,1,2,2,3,3,6,6,7,7,11,11],"right_children":[2,4,6,-1,-1,-1,10,-1,-1,-1,-1,-1,-1,-1,-1],"split_conditions":[3.5005E3,5.8995E3,3.406E3,2.5480124E-1,-0E0,-0E0,1.11E2,2.6159325E-1,-0E0,-0E0,-2.0313032E-1,2.7271974E-1,-0E0,2.8006417E-1,-0E0],"split_indices":[5,2,2,6,0,0,4,2147483647,2147483647,0,0,2147483647,2147483647,2147483647,2147483647],"split_type":[0,0,0,0,0,0,0,0,0,0,0,0,0,0,0],"sum_hessian":[5.028492E1,3.4441257E1,1.5843661E1,2.7892092E1,6.5491652E0,9.718412E-1,1.487182E1,2.687829E1,1.013802E0,1.2546602E0,1.361716E1,2.4960485E1,1.9178053E0,2.3657026E1,1.3034596E0],"tree_param":{"num_deleted":"6","num_feature":"7","num_nodes":"15","size_leaf_vector":"0"}},{"base_weights":[2.0778464E-1,7.147193E-1,-2.561046E-1,7.539608E-1,-0E0,-0E0,-3.956443E-1,7.761631E-1,-0E0,-4.8291525E-1,-0E0,8.020428E-1,-0E0,-0E0,-5.720459E-1,8.549996E-1,-0E0,-0E0,-7.215742E-1,-0E0,-7.580477E-1],"categories":[],"categories_nodes":[],"categories_segments":[],"categories_sizes":[],"default_left":[1,1,1,1,1,0,1,1,1,1,0,1,1,0,1,1,1,0,1,1,1],"id":5,"left_children":[1,-1,5,-1,-1,-1,9,-1,-1,13,-1,-1,-1,-1,17,-1,-1,-1,-1,-1,-1],"loss_changes":[1.278701E1,4.607048E-1,1.6726297E0,1.4178371E-1,0E0,0E0,8.970623E-1,2.460804E-1,0E0,9.1098213E-1,0E0,8.249569E-2,0E0,0E0,7.6824284E-1,0E0,0E0,0E0,3.7845135E-2,0E0,0E0],"parents":[2147483647,0,0,1,1,2,2,3,3,6,6,7,7,9,9,11,11,14,14,18,18],"right_children":[2,-1,6,-1,-1,-1,10,-1,-1,14,-1,-1,-1,-1,18,-1,-1,-1,-1,-1,-1],"split_conditions":[1.888E3,2.144158E-1,2.743E3,2.2618824E-1,-0E0,-0E0,3.118E3,2.3284894E-1,-0E0,1.5E0,-0E0,2.4061285E-1,-0E0,-0E0,5.631E3,2.564999E-1,-0E0,-0E0,-2.1647227E-1,-0E0,-2.2741432E-1],"split_indices":[5,3,2,2147483647,2147483647,0,4,2147483647,2147483647,0,0,2147483647,2147483647,0,2,2147483647,2147483647,0,6,2147483647,2147483647],"split_type":[0,0,0,0,0,0,0,0,0,0,0,0,0,0,0,0,0,0,0,0,0],"sum_hessian":[4.479622E1,2.5266842E1,1.9529377E1,2.3414219E1,1.8526232E0,1.2419715E0,1.8287405E1,2.22728E1,1.1414185E0,1.5792818E1,2.4945872E0,2.117768E1,1.095121E0,2.0414498E0,1.37513685E1,1.8628332E1,2.549346E0,4.0047593E0,9.74661E0,9.4340783E-1,8.803202E0],"tree_param":{"num_deleted":"10","num_feature":"7","num_nodes":"21","size_leaf_vector":"0"}},{"base_weights":[1.5796041E-1,7.8978765E-1,-9.977838E-2,8.3343184E-1,-0E0,-0E0,-3.8160777E-1,5.2104507E-2,-0E0,-0E0,-4.4625485E-1,1.1105873E-1,-0E0],"categories":[],"categories_nodes":[],"categories_segments":[],"categories_sizes":[],"default_left":[1,1,1,1,1,1,1,1,1,1,1,1,1],"id":6,"left_children":[1,-1,5,-1,-1,-1,-1,-1,-1,-1,-1,-1,-1],"loss_changes":[9.518641E0,5.1955605E-1,1.7654803E0,0E0,0E0,1.7128022E-2,5.082259E-1,4.5542896E-2,0E0,0E0,0E0,0E0,0E0],"parents":[2147483647,0,0,1,1,2,2,5,5,6,6,7,7],"right_children":[2,-1,6,-1,-1,-1,-1,-1,-1,-1,-1,-1,-1],"split_conditions":[4.4805E3,2.369363E-1,3.5005E3,2.5002956E-1,-0E0,-0E0,-1.14482336E-1,1.5631353E-2,-0E0,-0E0,-1.3387646E-1,3.3317618E-2,-0E0],"split_indices":[3,4,5,2147483647,2147483647,1,4,2147483647,2147483647,2147483647,2147483647,2147483647,2147483647],"split_type":[0,0,0,0,0,0,0,0,0,0,0,0,0],"sum_hessian":[4.0019028E1,1.5493405E1,2.4525623E1,1.4559204E1,9.3420106E-1,1.1657034E1,1.2868589E1,5.3089433E0,6.348091E0,1.1750603E0,1.1693529E1,4.0811343E0,1.2278091E0],"tree_param":{"num_deleted":"8","num_feature":"7","num_nodes":"13","size_leaf_vector":"0"}},{"base_weights":[1.2074908E-1,6.931094E-1,-4.5562927E-2,7.400193E-1,-0E0,-0E0,-2.975929E-1,5.2104507E-2,-0E0,-0E0,-3.6779577E-1,1.1105873E-1,-0E0,-4.00986E-1,-0E0],"categories":[],"categories_nodes":[],"categories_segments":[],"categories_sizes":[],"default_left":[1,1,1,1,1,1,1,1,1,1,1,1,1,1,1],"id":7,"left_children":[1,-1,5,-1,-1,-1,-1,-1,-1,-1,-1,-1,-1,-1,-1],"loss_changes":[6.200955E0,4.1852236E-1,1.1001794E0,0E0,0E0,1.7128022E-2,4.566859E-1,4.5542896E-2,0E0,0E0,2.6044846E-3,0E0,0E0,0E0,0E0],"parents":[2147483647,0,0,1,1,2,2,5,5,6,6,7,7,10,10],"right_children":[2,-1,6,-1,-1,-1,-1,-1,-1,-1,-1,-1,-1,-1,-1],"split_conditions":[4.4805E3,2.0793283E-1,3.5005E3,2.220058E-1,-0E0,-0E0,-8.927788E-2,1.5631353E-2,-0E0,-0E0,-1.1033873E-1,3.3317618E-2,-0E0,-1.202958E-1,-0E0],"split_indices":[3,4,5,2147483647,2147483647,1,4,2147483647,2147483647,2147483647,2147483647,2147483647,2147483647,2147483647,2147483647],"split_type":[0,0,0,0,0,0,0,0,0,0,0,0,0,0,0],"sum_hessian":[3.6600323E1,1.29425125E1,2.3657808E1,1.1995146E1,9.473664E-1,1.1657034E1,1.2000774E1,5.3089433E0,6.348091E0,1.1133626E0,1.0887412E1,4.0811343E0,1.2278091E0,9.017174E0,1.8702383E0],"tree_param":{"num_deleted":"10","num_feature":"7","num_nodes":"15","size_leaf_vector":"0"}},{"base_weights":[8.869105E-2,4.52403E-1,-1.364097E-1,5.635395E-1,-0E0,-2.7359197E-1,-0E0,5.983364E-1,-0E0,-0E0,-5.075528E-1],"categories":[],"categories_nodes":[],"categories_segments":[],"categories_sizes":[],"default_left":[1,1,1,1,0,1,0,1,1,0,0],"id":8,"left_children":[1,3,5,-1,-1,9,-1,-1,-1,-1,-1],"loss_changes":[4.1877756E0,1.0321321E0,4.7565153E-1,2.5623226E-1,0E0,9.352071E-1,0E0,0E0,0E0,0E0,0E0],"parents":[2147483647,0,0,1,1,2,2,3,3,5,5],"right_children":[2,4,6,-1,-1,10,-1,-1,-1,-1,-1],"split_conditions":[8.5105E3,1.9735E3,1.884E3,1.6906185E-1,-0E0,6.71E2,-0E0,1.7950092E-1,-0E0,-0E0,-1.5226585E-1],"split_indices":[3,6,6,5,0,4,0,2147483647,2147483647,0,0],"split_type":[0,0,0,0,0,0,0,0,0,0,0],"sum_hessian":[3.3958176E1,1.9389372E1,1.4568805E1,1.5390347E1,3.9990258E0,9.224764E0,5.344041E0,1.4255108E1,1.1352392E0,3.623476E0,5.601288E0],"tree_param":{"num_deleted":"2","num_feature":"7","num_nodes":"11","size_leaf_vector":"0"}},{"base_weights":[4.4050835E-2,5.291013E-1,-9.558544E-3,5.7923734E-1,-0E0,-0E0,-1.6217934E-1,-2.6912615E-1,-0E0,-0E0,-4.6702036E-1,-5.742479E-1,-0E0],"categories":[],"categories_nodes":[],"categories_segments":[],"categories_sizes":[],"default_left":[1,1,1,1,1,0,1,1,0,0,1,1,1],"id":9,"left_children":[1,-1,5,-1,-1,-1,7,9,-1,-1,-1,-1,-1],"loss_changes":[2.9415352E0,2.9281878E-1,5.3919506E-1,0E0,0E0,0E0,8.6415863E-1,1.5623982E0,0E0,0E0,2.7040672E-1,0E0,0E0],"parents":[2147483647,0,0,1,1,2,2,6,6,7,7,10,10],"right_children":[2,-1,6,-1,-1,-1,8,10,-1,-1,-1,-1,-1],"split_conditions":[4.4805E3,1.587304E-1,4.885E2,1.737712E-1,-0E0,-0E0,8.9155E3,6.71E2,-0E0,-0E0,-1.4010611E-1,-1.7227438E-1,-0E0],"split_indices":[3,6,5,2147483647,2147483647,0,4,4,0,0,6,2147483647,2147483647],"split_type":[0,0,0,0,0,0,0,0,0,0,0,0,0],"sum_hessian":[3.2007664E1,9.728623E0,2.227904E1,8.824506E0,9.041179E-1,2.6981256E0,1.9580914E1,1.8404972E1,1.1759416E0,5.7975917E0,1.2607381E1,8.82011E0,3.787271E0],"tree_param":{"num_deleted":"4","num_feature":"7","num_nodes":"13","size_leaf_vector":"0"}},{"base_weights":[5.556768E-2,3.214366E-1,-7.203268E-2,3.6961025E-1,-0E0,-0E0,-1.55833E-1,4.5630518E-1,-0E0,-2.3816048E-1,-0E0,4.7862056E-1,-0E0,-0E0,-2.5965476E-1],"categories":[],"categories_nodes":[],"categories_segments":[],"categories_sizes":[],"default_left":[1,1,1,1,0,1,1,1,0,1,1,1,1,1,1],"id":10,"left_children":[1,3,-1,7,-1,-1,-1,-1,-1,-1,-1,-1,-1,-1,-1],"loss_changes":[2.0805197E0,4.2933512E-1,1.7078555E-1,8.996365E-1,0E0,0E0,2.0535405E-1,1.1773634E-1,0E0,1.977092E-2,0E0,0E0,0E0,0E0,0E0],"parents":[2147483647,0,0,1,1,2,2,3,3,6,6,7,7,9,9],"right_children":[2,4,-1,8,-1,-1,-1,-1,-1,-1,-1,-1,-1,-1,-1],"split_conditions":[3.5005E3,9.2515E3,-2.1609806E-2,8.01E3,-0E0,-0E0,-4.6749905E-2,1.3689156E-1,-0E0,-7.144815E-2,-0E0,1.4358617E-1,-0E0,-0E0,-7.789643E-2],"split_indices":[5,2,6,4,0,2147483647,2147483647,1,0,2147483647,2147483647,2147483647,2147483647,2147483647,2147483647],"split_type":[0,0,0,0,0,0,0,0,0,0,0,0,0,0,0],"sum_hessian":[3.0238047E1,1.9479408E1,1.0758638E1,1.7631624E1,1.8477848E0,2.2133248E0,8.545313E0,1.5545131E1,2.0864928E0,6.7071323E0,1.8381807E0,1.4552245E1,9.9288625E-1,9.2993516E-1,5.7771974E0],"tree_param":{"num_deleted":"8","num_feature":"7","num_nodes":"15","size_leaf_vector":"0"}},{"base_weights":[-0E0,4.0075275E-1,-0E0,4.4151416E-1,-0E0,-0E0,-1.1412236E-1,-2.229406E-1,-0E0,-0E0,-3.9880976E-1,-5.112539E-1,-0E0],"categories":[],"categories_nodes":[],"categories_segments":[],"categories_sizes":[],"default_left":[1,1,1,1,1,0,1,1,0,0,1,1,1],"id":11,"left_children":[1,-1,5,-1,-1,-1,7,9,-1,-1,-1,-1,-1],"loss_changes":[1.4295388E0,1.1980116E-1,2.5736833E-1,0E0,0E0,0E0,6.6646665E-1,1.1244371E0,0E0,0E0,3.789966E-1,0E0,0E0],"parents":[2147483647,0,0,1,1,2,2,6,6,7,7,10,10],"right_children":[2,-1,6,-1,-1,-1,8,10,-1,-1,-1,-1,-1],"split_conditions":[5.15E2,1.2022583E-1,4.4805E3,1.3245426E-1,-0E0,-0E0,8.9155E3,6.71E2,-0E0,-0E0,-1.19642936E-1,-1.5337618E-1,-0E0],"split_indices":[5,4,3,2147483647,2147483647,0,4,4,0,0,6,2147483647,2147483647],"split_type":[0,0,0,0,0,0,0,0,0,0,0,0,0],"sum_hessian":[2.8953173E1,7.901084E0,2.105209E1,6.9479923E0,9.530915E-1,2.2908769E0,1.8761213E1,1.758729E1,1.1739227E0,5.709061E0,1.1878229E1,8.28634E0,3.5918894E0],"tree_param":{"num_deleted":"4","num_feature":"7","num_nodes":"13","size_leaf_vector":"0"}},{"base_weights":[1.425264E-2,2.2867228E-1,-8.820757E-3,4.0867957E-1,-0E0,-0E0,-8.687927E-2,5.0642985E-1,-0E0,-1.3802762E-1,-0E0],"categories":[],"categories_nodes":[],"categories_segments":[],"categories_sizes":[],"default_left":[1,1,1,1,0,1,1,0,0,1,1],"id":12,"left_children":[1,3,-1,7,-1,-1,-1,-1,-1,-1,-1],"loss_changes":[1.0236359E0,7.228241E-1,6.3290335E-2,6.459755E-1,0E0,0E0,6.933564E-2,0E0,0E0,0E0,0E0],"parents":[2147483647,0,0,1,1,2,2,3,3,6,6],"right_children":[2,4,-1,8,-1,-1,-1,-1,-1,-1,-1],"split_conditions":[3.876E3,1.1037E4,-2.6462274E-3,8.6935E3,-0E0,-0E0,-2.6063781E-2,1.5192896E-1,-0E0,-4.140829E-2,-0E0],"split_indices":[5,1,6,2,0,2147483647,2147483647,0,0,2147483647,2147483647],"split_type":[0,0,0,0,0,0,0,0,0,0,0],"sum_hessian":[2.7745005E1,1.8672432E1,9.072573E0,9.486923E0,9.185509E0,1.5837035E0,7.4888687E0,8.347994E0,1.1389297E0,6.0025363E0,1.4863324E0],"tree_param":{"num_deleted":"4","num_feature":"7","num_nodes":"11","size_leaf_vector":"0"}},{"base_weights":[-0E0,2.8034583E-1,-0E0,3.2416385E-1,-0E0,-0E0,-7.0456125E-2,-1.7711356E-1,-0E0,-0E0,-3.1916878E-1,-4.4799E-1,-0E0],"categories":[],"categories_nodes":[],"categories_segments":[],"categories_sizes":[],"default_left":[1,1,1,1,1,0,1,1,0,0,1,1,1],"id":13,"left_children":[1,-1,5,-1,-1,-1,7,9,-1,-1,-1,-1,-1],"loss_changes":[6.014092E-1,1.0743046E-1,9.542808E-2,0E0,0E0,0E0,4.718146E-1,6.9668835E-1,0E0,0E0,5.2761495E-1,0E0,0E0],"parents":[2147483647,0,0,1,1,2,2,6,6,7,7,10,10],"right_children":[2,-1,6,-1,-1,-1,8,10,-1,-1,-1,-1,-1],"split_conditions":[4.4805E3,8.410375E-2,4.885E2,9.724916E-2,-0E0,-0E0,8.9155E3,6.71E2,-0E0,-0E0,-9.575064E-2,-1.34397E-1,-0E0],"split_indices":[3,4,5,2147483647,2147483647,0,4,4,0,0,6,2147483647,2147483647],"split_type":[0,0,0,0,0,0,0,0,0,0,0,0,0],"sum_hessian":[2.7036541E1,6.652122E0,2.0384418E1,5.745573E0,9.0654916E-1,2.1606433E0,1.8223776E1,1.7082785E1,1.1409913E0,5.675333E0,1.1407451E1,7.9267077E0,3.4807432E0],"tree_param":{"num_deleted":"4","num_feature":"7","num_nodes":"13","size_leaf_vector":"0"}},{"base_weights":[-0E0,1.6512713E-1,-3.579136E-2,2.1749122E-1,-0E0,3.019197E-1,-0E0,4.115268E-1,-0E0,4.541182E-1,-0E0],"categories":[],"categories_nodes":[],"categories_segments":[],"categories_sizes":[],"default_left":[1,1,0,1,0,1,0,1,0,1,1],"id":14,"left_children":[1,3,-1,5,-1,7,-1,-1,-1,-1,-1],"loss_changes":[6.5258604E-1,3.665728E-1,0E0,5.0938964E-2,0E0,6.0639596E-1,0E0,1.320653E-1,0E0,0E0,0E0],"parents":[2147483647,0,0,1,1,3,3,5,5,7,7],"right_children":[2,4,-1,6,-1,8,-1,-1,-1,-1,-1],"split_conditions":[1.8385E4,5.89E3,-1.0737408E-2,1.1037E4,-0E0,4.1815E3,-0E0,1.2345804E-1,-0E0,1.3623546E-1,-0E0],"split_indices":[3,5,0,1,0,5,0,2,0,2147483647,2147483647],"split_type":[0,0,0,0,0,0,0,0,0,0,0],"sum_hessian":[2.6231838E1,2.27213E1,3.510538E0,2.0423439E1,2.297861E0,1.067587E1,9.747569E0,8.865209E0,1.8106616E0,7.7418866E0,1.1233221E0],"tree_param":{"num_deleted":"2","num_feature":"7","num_nodes":"11","size_leaf_vector":"0"}},{"base_weights":[-0E0,1.22695915E-1,-2.760535E-2,1.7159285E-1,-0E0,1.8564343E-1,-0E0,2.7319577E-1,-0E0,-0E0,3.211216E-1,3.4986854E-1,-0E0],"categories":[],"categories_nodes":[],"categories_segments":[],"categories_sizes":[],"default_left":[1,1,1,1,1,1,1,1,1,1,1,1,1],"id":15,"left_children":[-1,-1,-1,-1,-1,-1,-1,-1,-1,-1,-1,-1,-1],"loss_changes":[3.53377E-1,2.668526E-1,0E0,2.632296E-2,0E0,2.5175953E-1,0E0,1.9261819E-1,0E0,0E0,9.306407E-2,0E0,0E0],"parents":[2147483647,0,0,1,1,3,3,5,5,7,7,10,10],"right_children":[-1,-1,-1,-1,-1,-1,-1,-1,-1,-1,-1,-1,-1],"split_conditions":[-0E0,3.6808778E-2,-8.281605E-3,5.1477857E-2,-0E0,5.5693034E-2,-0E0,8.195873E-2,-0E0,-0E0,9.6336484E-2,1.0496057E-1,-0E0],"split_indices":[3,2147483647,2147483647,2147483647,2147483647,2147483647,2147483647,2147483647,2147483647,2147483647,2147483647,2147483647,2147483647],"split_type":[0,0,0,0,0,0,0,0,0,0,0,0,0],"sum_hessian":[2.5733536E1,2.224637E1,3.487165E0,1.994851E1,2.297861E0,1.766129E1,2.2872202E0,1.0990105E1,6.671184E0,1.4439403E0,9.5461645E0,8.644589E0,9.0157515E-1],"tree_param":{"num_deleted":"12","num_feature":"7","num_nodes":"13","size_leaf_vector":"0"}},{"base_weights":[-0E0,1.22695915E-1,-2.760535E-2,1.7159285E-1,-0E0,1.8564343E-1,-0E0,2.7319577E-1,-0E0,-0E0,3.211216E-1,3.4986854E-1,-0E0],"categories":[],"categories_nodes":[],"categories_segments":[],"categories_sizes":[],"default_left":[1,1,1,1,1,1,1,1,1,1,1,1,1],"id":16,"left_children":[-1,-1,-1,-1,-1,-1,-1,-1,-1,-1,-1,-1,-1],"loss_changes":[3.53377E-1,2.668526E-1,0E0,2.632296E-2,0E0,2.5175953E-1,0E0,1.9261819E-1,0E0,0E0,9.306407E-2,0E0,0E0],"parents":[2147483647,0,0,1,1,3,3,5,5,7,7,10,10],"right_children":[-1,-1,-1,-1,-1,-1,-1,-1,-1,-1,-1,-1,-1],"split_conditions":[-0E0,3.6808778E-2,-8.281605E-3,5.1477857E-2,-0E0,5.5693034E-2,-0E0,8.195873E-2,-0E0,-0E0,9.6336484E-2,1.0496057E-1,-0E0],"split_indices":[3,2147483647,2147483647,2147483647,2147483647,2147483647,2147483647,2147483647,2147483647,2147483647,2147483647,2147483647,2147483647],"split_type":[0,0,0,0,0,0,0,0,0,0,0,0,0],"sum_hessian":[2.5733536E1,2.224637E1,3.487165E0,1.994851E1,2.297861E0,1.766129E1,2.2872202E0,1.0990105E1,6.671184E0,1.4439403E0,9.5461645E0,8.644589E0,9.0157515E-1],"tree_param":{"num_deleted":"12","num_feature":"7","num_nodes":"13","size_leaf_vector":"0"}},{"base_weights":[-0E0,1.22695915E-1,-2.760535E-2,1.7159285E-1,-0E0,1.8564343E-1,-0E0,2.7319577E-1,-0E0,-0E0,3.211216E-1,3.4986854E-1,-0E0],"categories":[],"categories_nodes":[],"categories_segments":[],"categories_sizes":[],"default_left":[1,1,1,1,1,1,1,1,1,1,1,1,1],"id":17,"left_children":[-1,-1,-1,-1,-1,-1,-1,-1,-1,-1,-1,-1,-1],"loss_changes":[3.53377E-1,2.668526E-1,0E0,2.632296E-2,0E0,2.5175953E-1,0E0,1.9261819E-1,0E0,0E0,9.306407E-2,0E0,0E0],"parents":[2147483647,0,0,1,1,3,3,5,5,7,7,10,10],"right_children":[-1,-1,-1,-1,-1,-1,-1,-1,-1,-1,-1,-1,-1],"split_conditions":[-0E0,3.6808778E-2,-8.281605E-3,5.1477857E-2,-0E0,5.5693034E-2,-0E0,8.195873E-2,-0E0,-0E0,9.6336484E-2,1.0496057E-1,-0E0],"split_indices":[3,2147483647,2147483647,2147483647,2147483647,2147483647,2147483647,2147483647,2147483647,2147483647,2147483647,2147483647,2147483647],"split_type":[0,0,0,0,0,0,0,0,0,0,0,0,0],"sum_hessian":[2.5733536E1,2.224637E1,3.487165E0,1.994851E1,2.297861E0,1.766129E1,2.2872202E0,1.0990105E1,6.671184E0,1.4439403E0,9.5461645E0,8.644589E0,9.0157515E-1],"tree_param":{"num_deleted":"12","num_feature":"7","num_nodes":"13","size_leaf_vector":"0"}},{"base_weights":[-0E0,1.22695915E-1,-2.760535E-2,1.7159285E-1,-0E0,1.8564343E-1,-0E0,2.7319577E-1,-0E0,-0E0,3.211216E-1,3.4986854E-1,-0E0],"categories":[],"categories_nodes":[],"categories_segments":[],"categories_sizes":[],"default_left":[1,1,1,1,1,1,1,1,1,1,1,1,1],"id":18,"left_children":[-1,-1,-1,-1,-1,-1,-1,-1,-1,-1,-1,-1,-1],"loss_changes":[3.53377E-1,2.668526E-1,0E0,2.632296E-2,0E0,2.5175953E-1,0E0,1.9261819E-1,0E0,0E0,9.306407E-2,0E0,0E0],"parents":[2147483647,0,0,1,1,3,3,5,5,7,7,10,10],"right_children":[-1,-1,-1,-1,-1,-1,-1,-1,-1,-1,-1,-1,-1],"split_conditions":[-0E0,3.6808778E-2,-8.281605E-3,5.1477857E-2,-0E0,5.5693034E-2,-0E0,8.195873E-2,-0E0,-0E0,9.6336484E-2,1.0496057E-1,-0E0],"split_indices":[3,2147483647,2147483647,2147483647,2147483647,2147483647,2147483647,2147483647,2147483647,2147483647,2147483647,2147483647,2147483647],"split_type":[0,0,0,0,0,0,0,0,0,0,0,0,0],"sum_hessian":[2.5733536E1,2.224637E1,3.487165E0,1.994851E1,2.297861E0,1.766129E1,2.2872202E0,1.0990105E1,6.671184E0,1.4439403E0,9.5461645E0,8.644589E0,9.0157515E-1],"tree_param":{"num_deleted":"12","num_feature":"7","num_nodes":"13","size_leaf_vector":"0"}},{"base_weights":[-0E0,1.22695915E-1,-2.760535E-2,1.7159285E-1,-0E0,1.8564343E-1,-0E0,2.7319577E-1,-0E0,-0E0,3.211216E-1,3.4986854E-1,-0E0],"categories":[],"categories_nodes":[],"categories_segments":[],"categories_sizes":[],"default_left":[1,1,1,1,1,1,1,1,1,1,1,1,1],"id":19,"left_children":[-1,-1,-1,-1,-1,-1,-1,-1,-1,-1,-1,-1,-1],"loss_changes":[3.53377E-1,2.668526E-1,0E0,2.632296E-2,0E0,2.5175953E-1,0E0,1.9261819E-1,0E0,0E0,9.306407E-2,0E0,0E0],"parents":[2147483647,0,0,1,1,3,3,5,5,7,7,10,10],"right_children":[-1,-1,-1,-1,-1,-1,-1,-1,-1,-1,-1,-1,-1],"split_conditions":[-0E0,3.6808778E-2,-8.281605E-3,5.1477857E-2,-0E0,5.5693034E-2,-0E0,8.195873E-2,-0E0,-0E0,9.6336484E-2,1.0496057E-1,-0E0],"split_indices":[3,2147483647,2147483647,2147483647,2147483647,2147483647,2147483647,2147483647,2147483647,2147483647,2147483647,2147483647,2147483647],"split_type":[0,0,0,0,0,0,0,0,0,0,0,0,0],"sum_hessian":[2.5733536E1,2.224637E1,3.487165E0,1.994851E1,2.297861E0,1.766129E1,2.2872202E0,1.0990105E1,6.671184E0,1.4439403E0,9.5461645E0,8.644589E0,9.0157515E-1],"tree_param":{"num_deleted":"12","num_feature":"7","num_nodes":"13","size_leaf_vector":"0"}},{"base_weights":[-0E0,1.22695915E-1,-2.760535E-2,1.7159285E-1,-0E0,1.8564343E-1,-0E0,2.7319577E-1,-0E0,-0E0,3.211216E-1,3.4986854E-1,-0E0],"categories":[],"categories_nodes":[],"categories_segments":[],"categories_sizes":[],"default_left":[1,1,1,1,1,1,1,1,1,1,1,1,1],"id":20,"left_children":[-1,-1,-1,-1,-1,-1,-1,-1,-1,-1,-1,-1,-1],"loss_changes":[3.53377E-1,2.668526E-1,0E0,2.632296E-2,0E0,2.5175953E-1,0E0,1.9261819E-1,0E0,0E0,9.306407E-2,0E0,0E0],"parents":[2147483647,0,0,1,1,3,3,5,5,7,7,10,10],"right_children":[-1,-1,-1,-1,-1,-1,-1,-1,-1,-1,-1,-1,-1],"split_conditions":[-0E0,3.6808778E-2,-8.281605E-3,5.1477857E-2,-0E0,5.5693034E-2,-0E0,8.195873E-2,-0E0,-0E0,9.6336484E-2,1.0496057E-1,-0E0],"split_indices":[3,2147483647,2147483647,2147483647,2147483647,2147483647,2147483647,2147483647,2147483647,2147483647,2147483647,2147483647,2147483647],"split_type":[0,0,0,0,0,0,0,0,0,0,0,0,0],"sum_hessian":[2.5733536E1,2.224637E1,3.487165E0,1.994851E1,2.297861E0,1.766129E1,2.2872202E0,1.0990105E1,6.671184E0,1.4439403E0,9.5461645E0,8.644589E0,9.0157515E-1],"tree_param":{"num_deleted":"12","num_feature":"7","num_nodes":"13","size_leaf_vector":"0"}},{"base_weights":[-0E0,1.22695915E-1,-2.760535E-2,1.7159285E-1,-0E0,1.8564343E-1,-0E0,2.7319577E-1,-0E0,-0E0,3.211216E-1,3.4986854E-1,-0E0],"categories":[],"categories_nodes":[],"categories_segments":[],"categories_sizes":[],"default_left":[1,1,1,1,1,1,1,1,1,1,1,1,1],"id":21,"left_children":[-1,-1,-1,-1,-1,-1,-1,-1,-1,-1,-1,-1,-1],"loss_changes":[3.53377E-1,2.668526E-1,0E0,2.632296E-2,0E0,2.5175953E-1,0E0,1.9261819E-1,0E0,0E0,9.306407E-2,0E0,0E0],"parents":[2147483647,0,0,1,1,3,3,5,5,7,7,10,10],"right_children":[-1,-1,-1,-1,-1,-1,-1,-1,-1,-1,-1,-1,-1],"split_conditions":[-0E0,3.6808778E-2,-8.281605E-3,5.1477857E-2,-0E0,5.5693034E-2,-0E0,8.195873E-2,-0E0,-0E0,9.6336484E-2,1.0496057E-1,-0E0],"split_indices":[3,2147483647,2147483647,2147483647,2147483647,2147483647,2147483647,2147483647,2147483647,2147483647,2147483647,2147483647,2147483647],"split_type":[0,0,0,0,0,0,0,0,0,0,0,0,0],"sum_hessian":[2.5733536E1,2.224637E1,3.487165E0,1.994851E1,2.297861E0,1.766129E1,2.2872202E0,1.0990105E1,6.671184E0,1.4439403E0,9.5461645E0,8.644589E0,9.0157515E-1],"tree_param":{"num_deleted":"12","num_feature":"7","num_nodes":"13","size_leaf_vector":"0"}},{"base_weights":[-0E0,1.22695915E-1,-2.760535E-2,1.7159285E-1,-0E0,1.8564343E-1,-0E0,2.7319577E-1,-0E0,-0E0,3.211216E-1,3.4986854E-1,-0E0],"categories":[],"categories_nodes":[],"categories_segments":[],"categories_sizes":[],"default_left":[1,1,1,1,1,1,1,1,1,1,1,1,1],"id":22,"left_children":[-1,-1,-1,-1,-1,-1,-1,-1,-1,-1,-1,-1,-1],"loss_changes":[3.53377E-1,2.668526E-1,0E0,2.632296E-2,0E0,2.5175953E-1,0E0,1.9261819E-1,0E0,0E0,9.306407E-2,0E0,0E0],"parents":[2147483647,0,0,1,1,3,3,5,5,7,7,10,10],"right_children":[-1,-1,-1,-1,-1,-1,-1,-1,-1,-1,-1,-1,-1],"split_conditions":[-0E0,3.6808778E-2,-8.281605E-3,5.1477857E-2,-0E0,5.5693034E-2,-0E0,8.195873E-2,-0E0,-0E0,9.6336484E-2,1.0496057E-1,-0E0],"split_indices":[3,2147483647,2147483647,2147483647,2147483647,2147483647,2147483647,2147483647,2147483647,2147483647,2147483647,2147483647,2147483647],"split_type":[0,0,0,0,0,0,0,0,0,0,0,0,0],"sum_hessian":[2.5733536E1,2.224637E1,3.487165E0,1.994851E1,2.297861E0,1.766129E1,2.2872202E0,1.0990105E1,6.671184E0,1.4439403E0,9.5461645E0,8.644589E0,9.0157515E-1],"tree_param":{"num_deleted":"12","num_feature":"7","num_nodes":"13","size_leaf_vector":"0"}},{"base_weights":[-0E0,1.22695915E-1,-2.760535E-2,1.7159285E-1,-0E0,1.8564343E-1,-0E0,2.7319577E-1,-0E0,-0E0,3.211216E-1,3.4986854E-1,-0E0],"categories":[],"categories_nodes":[],"categories_segments":[],"categories_sizes":[],"default_left":[1,1,1,1,1,1,1,1,1,1,1,1,1],"id":23,"left_children":[-1,-1,-1,-1,-1,-1,-1,-1,-1,-1,-1,-1,-1],"loss_changes":[3.53377E-1,2.668526E-1,0E0,2.632296E-2,0E0,2.5175953E-1,0E0,1.9261819E-1,0E0,0E0,9.306407E-2,0E0,0E0],"parents":[2147483647,0,0,1,1,3,3,5,5,7,7,10,10],"right_children":[-1,-1,-1,-1,-1,-1,-1,-1,-1,-1,-1,-1,-1],"split_conditions":[-0E0,3.6808778E-2,-8.281605E-3,5.1477857E-2,-0E0,5.5693034E-2,-0E0,8.195873E-2,-0E0,-0E0,9.6336484E-2,1.0496057E-1,-0E0],"split_indices":[3,2147483647,2147483647,2147483647,2147483647,2147483647,2147483647,2147483647,2147483647,2147483647,2147483647,2147483647,2147483647],"split_type":[0,0,0,0,0,0,0,0,0,0,0,0,0],"sum_hessian":[2.5733536E1,2.224637E1,3.487165E0,1.994851E1,2.297861E0,1.766129E1,2.2872202E0,1.0990105E1,6.671184E0,1.4439403E0,9.5461645E0,8.644589E0,9.0157515E-1],"tree_param":{"num_deleted":"12","num_feature":"7","num_nodes":"13","size_leaf_vector":"0"}}]},"name":"gbtree"},"learner_model_param":{"base_score":"5E-1","num_class":"0","num_feature":"7","num_target":"1"},"objective":{"name":"binary:logistic","reg_loss_param":{"scale_pos_weight":"1"}}},"version":[1,6,1]}